digraph Tree {
node [shape=box, style="rounded", color="black", fontname=helvetica] ;
edge [fontname=helvetica] ;
0 [label="TotalTime <= -0.0\nmse = 3.1\nsamples = 398\nvalue = 2.9"] ;
1 [label="BlinkDurationTotal <= -0.0\nmse = 2.3\nsamples = 242\nvalue = 2.0"] ;
0 -> 1 [labeldistance=2.5, labelangle=45, headlabel="True"] ;
2 [label="PupilSizeAbsolute_writingMean <= 0.0\nmse = 1.4\nsamples = 150\nvalue = 1.4"] ;
1 -> 2 ;
3 [label="mse = 1.4\nsamples = 135\nvalue = 1.5"] ;
2 -> 3 ;
4 [label="mse = 0.4\nsamples = 15\nvalue = 0.4"] ;
2 -> 4 ;
5 [label="ErrorRate <= 0.0\nmse = 2.2\nsamples = 92\nvalue = 2.9"] ;
1 -> 5 ;
6 [label="mse = 1.7\nsamples = 79\nvalue = 2.6"] ;
5 -> 6 ;
7 [label="mse = 1.0\nsamples = 13\nvalue = 5.0"] ;
5 -> 7 ;
8 [label="TotalTime <= 0.0\nmse = 1.4\nsamples = 156\nvalue = 4.2"] ;
0 -> 8 [labeldistance=2.5, labelangle=-45, headlabel="False"] ;
9 [label="ErrorRate <= 0.1\nmse = 1.0\nsamples = 49\nvalue = 3.6"] ;
8 -> 9 ;
10 [label="mse = 0.8\nsamples = 44\nvalue = 3.4"] ;
9 -> 10 ;
11 [label="mse = 0.8\nsamples = 5\nvalue = 4.8"] ;
9 -> 11 ;
12 [label="PupilSizeRelative_writingStart300 <= 0.0\nmse = 1.2\nsamples = 107\nvalue = 4.5"] ;
8 -> 12 ;
13 [label="mse = 1.2\nsamples = 58\nvalue = 4.1"] ;
12 -> 13 ;
14 [label="mse = 0.8\nsamples = 49\nvalue = 5.0"] ;
12 -> 14 ;
}